{
  "model_type": "distilled_wolfguard_softmax",
  "action_labels": [
    "none",
    "warning",
    "cooldown",
    "block"
  ],
  "feature_names": [
    "day_norm",
    "price_gap",
    "abs_price_gap",
    "spread_bps_scaled",
    "log_volume",
    "log_real_volume",
    "volume_share",
    "depth_imbalance",
    "cancel_rate",
    "wash_share",
    "log_msg_volume",
    "msg_volume_share",
    "sentiment",
    "harmful_msg_share",
    "log_cascade_size",
    "recent_return"
  ],
  "feature_mean": [
    0.48333333333333345,
    0.0331039855393517,
    0.06777635370384782,
    0.3035333093671073,
    0.0,
    0.0,
    0.0,
    0.0,
    0.0,
    0.0,
    0.2602667177264261,
    0.11461988304093568,
    0.11461988304093568,
    0.11461988304093568,
    0.6904771500085536,
    0.00044363568337374854
  ],
  "feature_scale": [
    0.2885147149466519,
    0.1476806297925501,
    0.13532112973636656,
    0.15298737918819075,
    1.0,
    1.0,
    1.0,
    1.0,
    1.0,
    1.0,
    0.9945583172159805,
    0.31856265545845924,
    0.31856265545845924,
    0.31856265545845924,
    1.9804382586554408,
    0.024492437053428642
  ],
  "weights": [
    [
      0.14418251585565978,
      -0.10622838441755106,
      -0.08459689923884105,
      0.04305913801078829
    ],
    [
      0.024637947966619684,
      0.116106131836709,
      -0.024099371249268992,
      -0.1520188837401755
    ],
    [
      -0.8395408543487465,
      0.17670144083761552,
      0.28276599504404726,
      0.3639161369409736
    ],
    [
      -0.09796873108841908,
      0.03986458756693337,
      0.0565171915902318,
      0.0011048740833313098
    ],
    [
      0.013349626037198949,
      0.00020662115315317887,
      0.00686787812351252,
      0.0010658563680833652
    ],
    [
      0.010899718245991643,
      0.010550729237945712,
      -0.009019063818290535,
      -0.0060882779407814116
    ],
    [
      0.0034117383507832944,
      -0.0020875385083365203,
      -0.02271245641300788,
      0.0201399710615548
    ],
    [
      -0.021619664513167255,
      -0.020690908654232777,
      -0.012684785932571432,
      0.005614722463330307
    ],
    [
      0.017852685881384802,
      -0.0023400677724265393,
      -0.0038873788845127104,
      0.0017286116910553556
    ],
    [
      -0.0036466515320251122,
      0.0008187250795552118,
      -0.011331520411255794,
      0.004356357347657118
    ],
    [
      -0.09269119058655738,
      -0.4083265149797262,
      -0.06856488343100255,
      0.5498001601033526
    ],
    [
      -0.27877951412071666,
      0.3992584967020552,
      0.045526864773850005,
      -0.19119061639636853
    ],
    [
      -0.278910563414155,
      0.39890317752162013,
      0.05113203683534508,
      -0.17037091478591532
    ],
    [
      -0.2921727359180418,
      0.3984380058519597,
      0.05782084542047398,
      -0.17976592531963148
    ],
    [
      -0.22149114978132753,
      -0.7170527105936475,
      0.3231987459404487,
      0.6001132883473049
    ],
    [
      -0.04080324584064795,
      0.02288712179705872,
      0.05668841915174654,
      -0.048900909681111174
    ]
  ],
  "bias": [
    -0.07716662340661028,
    -0.004167202759399833,
    0.03245134922513407,
    0.04888247694087747
  ],
  "metadata": {
    "epochs": 300,
    "lr": 0.1,
    "l2": 0.0001,
    "seed": 17,
    "class_balance": true,
    "n_train_records": 68400,
    "class_counts": {
      "none": 49200,
      "warning": 4800,
      "cooldown": 3600,
      "block": 10800
    },
    "training_loss": 1.124448985550185
  }
}
